svm_type c_svc
kernel_type rbf
gamma 0.08333333333333333
nr_class 7
total_sv 45
rho -0.045092493295669556 -0.1503218114376068 -0.9877253770828247 -0.9232408702373505 -0.6341255903244019 -0.9290457444521726 0.009589344263076782 -0.600222110748291 -0.6865705847740173 0.03290361166000366 -0.8464817404747009 -0.8400888442993164 -0.9232408702373505 -0.6991007924079895 -0.9232408702373505 -0.9200444221496582 0.024549245834350586 -0.9200444221496582 0.7113754153251648 -1.0 -0.9232408702373505
label 1 4 2 7 5 6 3
nr_sv 11 9 11 5 3 5 1
SV
1.0 1.0 1.0 0.0 0.0 0.0 1:0.0 5:0.0 11:0.0 12:1.0 
1.0 1.0 1.0 1.0 1.0 0.9171589865588585 1:0.0 5:0.0 11:0.0 12:0.0 
0.4973353103250854 1.0 0.006393167898186447 0.039977799843749065 1.0 0.037570813246038184 1:1.0 5:1.0 11:0.0 12:0.0 
0.0 0.01388312434068991 0.0 0.0 0.0 0.0 1:1.0 5:0.0 11:0.0 12:0.0 
0.5026646896749146 1.0 0.0 0.0 0.0 0.0 1:1.0 5:0.0 11:0.0 12:0.0 
1.0 1.0 0.0 0.0 0.0 0.0 1:1.0 5:0.0 11:0.0 12:0.0 
1.0 1.0 0.0 0.0 0.0 0.0 1:1.0 5:0.0 11:0.0 12:0.0 
1.0 1.0 1.0 1.0 0.6167368571860092 0.0399185109100633 1:0.0 5:0.0 11:0.0 12:1.0 
1.0 1.0 0.0 0.0 0.38326314281399076 0.0 1:1.0 5:0.0 11:0.0 12:0.0 
1.0 1.0 0.9936068321018136 0.0 1.0 0.0 1:1.0 5:0.0 11:0.0 12:0.0 
1.0 1.0 1.0 0.960022200156251 1.0 0.005351689285039995 1:1.0 5:0.0 11:0.0 12:0.0 
-1.0 0.01388312434068991 0.0 0.0 0.0 0.0 1:0.0 5:0.0 11:0.0 12:1.0 
-1.0 1.0 0.0 0.0 0.0 0.0 1:0.0 5:0.0 11:0.0 12:1.0 
-1.0 1.0 0.0 0.0 0.0 0.0 1:0.0 5:0.0 11:0.0 12:1.0 
-1.0 1.0 0.0 0.0 0.0 0.0 1:0.0 5:0.0 11:0.0 12:1.0 
-1.0 1.0 1.0 0.0 1.0 0.0 1:0.0 5:0.0 11:0.0 12:1.0 
-1.0 1.0 1.0 0.0 1.0 0.0 1:0.0 5:0.0 11:0.0 12:1.0 
-1.0 1.0 1.0 1.0 1.0 0.0 1:0.0 5:0.0 11:0.0 12:1.0 
-1.0 1.0 1.0 1.0 1.0 0.0 1:0.0 5:0.0 11:0.0 12:1.0 
-1.0 1.0 1.0 1.0 1.0 1.0 1:0.0 5:0.0 11:0.0 12:1.0 
-0.01388312434068991 -0.0 0.0 0.0 0.0 0.0 1:0.0 5:1.0 11:0.0 12:0.0 
-1.0 -0.0 0.0 0.0 0.0 0.0 1:0.0 5:1.0 11:0.0 12:0.0 
-1.0 -0.01388312434068991 0.0 0.0 0.0 0.0 1:0.0 5:1.0 11:0.0 12:0.0 
-1.0 -1.0 0.0 0.0 0.843285384574097 0.0 1:0.0 5:1.0 11:0.0 12:0.0 
-1.0 -1.0 0.0 0.0 1.0 0.0 1:0.0 5:1.0 11:0.0 12:0.0 
-1.0 -1.0 1.0 0.960022200156251 0.0 0.0 1:0.0 5:0.0 11:0.0 12:0.0 
-1.0 -1.0 0.0 0.0 1.0 0.0 1:0.0 5:1.0 11:0.0 12:0.0 
-1.0 -1.0 1.0 1.0 0.0 0.0 1:0.0 5:0.0 11:0.0 12:0.0 
-1.0 -1.0 1.0 0.0 1.0 0.0 1:0.0 5:1.0 11:0.0 12:0.0 
-1.0 -1.0 1.0 1.0 0.15671461542590304 0.960022200156251 1:0.0 5:0.0 11:0.0 12:0.0 
-1.0 -1.0 1.0 0.03997779984374905 1.0 0.03997779984374905 1:0.0 5:1.0 11:0.0 12:0.0 
-1.0 -1.0 -1.0 0.0 1.0 0.0 1:0.0 5:0.0 11:0.0 12:0.0 
-1.0 -1.0 -1.0 0.0 1.0 0.0 1:0.0 5:0.0 11:0.0 12:0.0 
-1.0 -1.0 -1.0 1.0 1.0 0.0 1:0.0 5:0.0 11:0.0 12:0.0 
-1.0 -1.0 -1.0 1.0 1.0 0.0 1:0.0 5:0.0 11:0.0 12:0.0 
-1.0 -1.0 -1.0 1.0 1.0 1.0 1:0.0 5:0.0 11:0.0 12:0.0 
-1.0 -1.0 -1.0 -1.0 1.0 0.0 1:0.0 5:0.0 11:0.0 12:0.0 
-1.0 -1.0 -1.0 -1.0 1.0 1.0 1:0.0 5:0.0 11:1.0 12:0.0 
-1.0 -1.0 -1.0 -1.0 1.0 0.0 1:0.0 5:0.0 11:0.0 12:0.0 
-1.0 -1.0 -1.0 -1.0 -1.0 0.0 1:0.0 5:1.0 11:0.0 12:0.0 
-1.0 -1.0 -1.0 -1.0 -1.0 0.5000000000000002 1:1.0 5:1.0 11:1.0 12:0.0 
-1.0 -1.0 -1.0 -1.0 -0.0 0.0 1:1.0 5:1.0 11:0.0 12:0.0 
-1.0 -1.0 -1.0 -1.0 -1.0 0.4999999999999998 1:0.0 5:1.0 11:0.0 12:0.0 
-1.0 -1.0 -1.0 -1.0 -0.0 0.0 1:1.0 5:1.0 11:0.0 12:0.0 
-1.0 -1.0 -1.0 -1.0 -1.0 -1.0 1:0.0 5:0.0 11:1.0 12:0.0 
